{"learner":{"attributes":{"best_iteration":"3","best_ntree_limit":"4","best_score":"0.662187251095244","scikit_learn":"{\"use_label_encoder\": null, \"n_estimators\": 100, \"objective\": \"binary:logistic\", \"max_depth\": 6, \"max_leaves\": null, \"max_bin\": null, \"grow_policy\": \"lossguide\", \"learning_rate\": 0.55, \"verbosity\": null, \"booster\": null, \"tree_method\": null, \"gamma\": null, \"min_child_weight\": 10, \"max_delta_step\": null, \"subsample\": null, \"sampling_method\": null, \"colsample_bytree\": null, \"colsample_bylevel\": null, \"colsample_bynode\": null, \"reg_alpha\": null, \"reg_lambda\": null, \"scale_pos_weight\": null, \"base_score\": null, \"missing\": NaN, \"num_parallel_tree\": null, \"random_state\": 62, \"n_jobs\": null, \"monotone_constraints\": null, \"interaction_constraints\": null, \"importance_type\": null, \"gpu_id\": null, \"validate_parameters\": null, \"predictor\": null, \"enable_categorical\": false, \"feature_types\": null, \"max_cat_to_onehot\": null, \"max_cat_threshold\": null, \"eval_metric\": null, \"early_stopping_rounds\": 5, \"callbacks\": null, \"classes_\": [0, 1], \"n_classes_\": 2, \"evals_result_\": {\"validation_0\": {\"logloss\": [0.6634102371429266, 0.6523886630598735, 0.6480265898166202, 0.6450231922414934, 0.6428416137285383, 0.6409014973362444, 0.639586600514033, 0.6372981036899118, 0.6365445349203503]}, \"validation_1\": {\"logloss\": [0.673528141419407, 0.6649863019526712, 0.6636231066445588, 0.662187251095244, 0.6635462109514847, 0.6629932121325859, 0.6636500366002674, 0.6640598718592301, 0.6639133425804937]}}, \"_estimator_type\": \"classifier\"}"},"feature_names":["EDAD","NOM_FRECUENCIA_MESES","NOM_FRECUENCIA_SEMANAS","SEXO_F","SEXO_M","ESTADO_CIVIL_Casado (a)","ESTADO_CIVIL_Conviviente","ESTADO_CIVIL_Divorciado (a)","ESTADO_CIVIL_Separado (a)","ESTADO_CIVIL_Soltero (a)","ESTADO_CIVIL_Viudo (a)","GIROS_ABARROTES","GIROS_AUTOMOTRIZ","GIROS_BOTICA","GIROS_CARPINTERIA","GIROS_COMERCIANTE","GIROS_COMERCIO DE ALIMENTOS","GIROS_COMERCIO DE ANIMALES","GIROS_COMERCIO DE ARTESANIA","GIROS_COMERCIO DE BEBIDAS","GIROS_COMERCIO DE CELULARES","GIROS_COMERCIO DE PROD NO ALIMENTICIOS","GIROS_COMERCIO DE ROPA","GIROS_COMERCIO FERRETERO","GIROS_COMERCIO MINORISTA","GIROS_OFICIO","GIROS_OFICIO CONSTRUCCION","GIROS_OTROS","GIROS_PRESTADOR DE SERVICIOS","GIROS_PROFESIONAL","GIROS_RESTAURANTE"],"feature_types":["int","i","i","i","i","i","i","i","i","i","i","i","i","i","i","i","i","i","i","i","i","i","i","i","i","i","i","i","i","i","i"],"gradient_booster":{"model":{"gbtree_model_param":{"num_parallel_tree":"1","num_trees":"9","size_leaf_vector":"0"},"tree_info":[0,0,0,0,0,0,0,0,0],"trees":[{"base_weights":[-1.0031596E-1,-7.5113124E-1,1.8574269E-1,-6.262069E-1,-8.5714287E-1,2.3315902E-1,-3.7956205E-1,-4.868914E-1,-7.012987E-1,-8.21382E-1,-1.2380953E0,1.6738197E-1,6.318083E-1,-1.981982E-1,-4.9101797E-1,-5.471698E-1,-2.3728813E-1,-5.030675E-1,-7.986799E-1,-9.3532336E-1,-6.8834686E-1,9.425071E-3,2.6336974E-1,7.154047E-1,2E-1,-4.4444446E-2,-2.857143E-1,-6.5384614E-1,-2.0895523E-1,-4.4155845E-1,-7.741935E-1,-7.586207E-1,-3.4862384E-1,-6.944444E-1,-1.0534351E0,-5.4545456E-1,-7.6521736E-1,-3.2128513E-2,6.086956E-1,3.5384616E-1,-4.514673E-3,5.728643E-1,8.5106385E-1,-3.6363637E-1,-8.125E-1,-5.494506E-1,-2.6865673E-1,-4.4444446E-2,-5.294118E-1,-9.1156465E-1,-1.1932774E0,-4.827586E-1,-8.4090906E-1,1.0976949E-2,-4.7191012E-1,4.139738E-1,-8.805031E-2,5.6265984E-2,-4.2857143E-1,8.780488E-1,3.4710744E-1,1.0144928E0,7.3170733E-1],"categories":[],"categories_nodes":[],"categories_segments":[],"categories_sizes":[],"default_left":[1,1,1,1,1,1,1,1,1,1,0,1,1,1,1,1,0,1,0,1,1,1,1,1,0,0,0,1,0,1,0,0,1,0,1,0,1,1,0,1,1,1,1,0,0,0,0,0,0,0,0,0,0,0,0,0,0,0,0,0,0,0,0],"id":0,"left_children":[1,3,5,7,9,11,13,15,17,19,-1,21,23,25,27,29,-1,31,-1,33,35,37,39,41,-1,-1,-1,43,-1,45,-1,-1,47,-1,49,-1,51,53,-1,55,57,59,61,-1,-1,-1,-1,-1,-1,-1,-1,-1,-1,-1,-1,-1,-1,-1,-1,-1,-1,-1,-1],"loss_changes":[2.3583241E2,4.585144E0,2.3683321E1,1.5546799E0,1.7962341E0,2.120615E1,1.2873449E0,8.744631E-1,1.8278236E0,2.2627563E0,0E0,1.0595709E1,3.9991226E0,3.607037E-1,1.78086E0,9.288912E-1,0E0,1.3438711E0,0E0,2.1277313E0,5.959053E-1,6.6247697E0,1.0538729E1,1.3639641E0,0E0,0E0,0E0,9.016609E-1,0E0,5.705929E-1,0E0,0E0,1.4750011E0,0E0,2.1173859E-1,0E0,8.233795E-1,4.7254705E0,0E0,8.671768E0,2.878634E0,3.1228733E0,1.7448807E-1,0E0,0E0,0E0,0E0,0E0,0E0,0E0,0E0,0E0,0E0,0E0,0E0,0E0,0E0,0E0,0E0,0E0,0E0,0E0,0E0],"parents":[2147483647,0,0,1,1,2,2,3,3,4,4,5,5,6,6,7,7,8,8,9,9,11,11,12,12,13,13,14,14,15,15,17,17,19,19,20,20,21,21,22,22,23,23,27,27,29,29,32,32,34,34,36,36,37,37,39,39,40,40,41,41,42,42],"right_children":[2,4,6,8,10,12,14,16,18,20,-1,22,24,26,28,30,-1,32,-1,34,36,38,40,42,-1,-1,-1,44,-1,46,-1,-1,48,-1,50,-1,52,54,-1,56,58,60,62,-1,-1,-1,-1,-1,-1,-1,-1,-1,-1,-1,-1,-1,-1,-1,-1,-1,-1,-1,-1],"split_conditions":[5E-1,3.85E1,5E-1,5E-1,6.25E1,5E-1,4.75E1,3.55E1,2.85E1,4.75E1,-6.809524E-1,3.35E1,5.35E1,5E-1,5.95E1,3.15E1,-1.3050848E-1,2.35E1,-4.3927395E-1,5E-1,5.25E1,5E-1,5.15E1,3.75E1,1.1000001E-1,-2.4444446E-2,-1.5714286E-1,5E-1,-1.1492538E-1,2.75E1,-4.2580646E-1,-4.172414E-1,2.55E1,-3.8194445E-1,4.35E1,-3E-1,5E-1,5E-1,3.347826E-1,5E-1,5E-1,2.95E1,4.25E1,-2E-1,-4.46875E-1,-3.021978E-1,-1.4776121E-1,-2.4444446E-2,-2.911765E-1,-5.013606E-1,-6.563026E-1,-2.6551723E-1,-4.625E-1,6.037322E-3,-2.5955057E-1,2.276856E-1,-4.8427675E-2,3.0946292E-2,-2.3571429E-1,4.8292685E-1,1.909091E-1,5.57971E-1,4.0243903E-1],"split_indices":[1,0,5,3,0,15,0,0,0,0,0,0,0,3,0,0,0,0,0,3,0,16,0,0,0,0,0,3,0,0,0,0,0,0,0,0,3,27,0,29,12,0,0,0,0,0,0,0,0,0,0,0,0,0,0,0,0,0,0,0,0,0,0],"split_type":[0,0,0,0,0,0,0,0,0,0,0,0,0,0,0,0,0,0,0,0,0,0,0,0,0,0,0,0,0,0,0,0,0,0,0,0,0,0,0,0,0,0,0,0,0,0,0,0,0,0,0,0,0,0,0,0,0,0,0,0,0,0,0],"sum_hessian":[1.265E3,3.8575E2,8.7925E2,1.8025E2,2.055E2,8.1175E2,6.75E1,6.575E1,1.145E2,1.9075E2,1.475E1,6.98E2,1.1375E2,2.675E1,4.075E1,5.2E1,1.375E1,3.975E1,7.475E1,9.95E1,9.125E1,2.6425E2,4.3375E2,9.475E1,1.9E1,1.025E1,1.65E1,2.5E1,1.575E1,3.75E1,1.45E1,1.35E1,2.625E1,3.5E1,6.45E1,3.475E1,5.65E1,2.48E2,1.625E1,3.24E2,1.0975E2,4.875E1,4.6E1,1E1,1.5E1,2.175E1,1.575E1,1.025E1,1.6E1,3.575E1,2.875E1,1.35E1,4.3E1,2.2675E2,2.125E1,2.8525E2,3.875E1,9.675E1,1.3E1,1.95E1,2.925E1,1.625E1,2.975E1],"tree_param":{"num_deleted":"0","num_feature":"31","num_nodes":"63","size_leaf_vector":"0"}},{"base_weights":[-5.1417265E-2,-3.7548858E-1,8.633299E-2,-3.3928815E-1,-5.42616E-1,1.1949921E-1,-1.7003092E-1,-3.0234632E-1,-5.393558E-1,-3.8038486E-1,-7.21538E-1,1.5738168E-1,-1.9795467E-1,-6.722859E-1,-8.5727155E-2,-2.6585045E-1,-5.8371353E-1,-3.319151E-1,-6.7824715E-1,-5.396644E-1,-1.3818118E-1,-9.7736704E-1,-5.119475E-1,-3.52774E-1,1.7531122E-1,2.8944308E-1,-3.0363995E-1,-1.568462E-1,4.8059173E-2,-1.3016024E-1,-3.3360982E-1,-6.597063E-1,-4.2175066E-1,-9.18123E-1,-2.8273213E-1,-4.1850713E-1,-2.6770455E-1,2.6726785E-1,1.00784205E-1,-7.3330534E-1,-1.7199868E-1,-7.551972E-2,-4.5563728E-1,3.4744614E-1,-1.7350714E-1,-1.171594E-2,-1.6780451E-1,-3.7330353E-1,-5.896781E-3,3.1519184E-1,-2.3250836E-1,1.4380553E-1,-3.2158908E-1,5.6246433E-2,-2.7513662E-1,3.3652242E-2,-1.1396725E-1],"categories":[],"categories_nodes":[],"categories_segments":[],"categories_sizes":[],"default_left":[1,1,1,1,1,1,1,1,1,1,1,1,1,0,1,1,1,0,1,0,0,0,0,1,1,0,1,1,1,1,1,0,0,0,0,0,0,1,1,0,1,1,0,0,0,0,0,0,0,0,0,0,0,0,0,0,0],"id":1,"left_children":[1,3,5,7,9,11,13,15,17,19,21,23,25,-1,27,29,31,-1,33,-1,-1,-1,-1,35,37,-1,39,41,43,45,47,-1,-1,-1,-1,-1,-1,49,51,-1,53,55,-1,-1,-1,-1,-1,-1,-1,-1,-1,-1,-1,-1,-1,-1,-1],"loss_changes":[5.5376728E1,2.0543022E0,7.4242897E0,2.1042786E0,1.5891228E0,9.310658E0,4.1834683E0,2.5273914E0,1.1157932E0,1.3060131E0,1.0768862E0,6.372427E0,4.348132E0,0E0,8.3449495E-1,2.0995674E0,8.06427E-2,0E0,2.2942286E0,0E0,0E0,0E0,0E0,2.0804882E-2,4.545294E0,0E0,3.745862E0,1.3502234E0,2.1120946E0,3.5146654E-1,2.0116081E0,0E0,0E0,0E0,0E0,0E0,0E0,7.2120132E0,6.771536E0,0E0,1.2797943E0,1.9686937E-1,0E0,0E0,0E0,0E0,0E0,0E0,0E0,0E0,0E0,0E0,0E0,0E0,0E0,0E0,0E0],"parents":[2147483647,0,0,1,1,2,2,3,3,4,4,5,5,6,6,7,7,8,8,9,9,10,10,11,11,12,12,14,14,15,15,16,16,18,18,23,23,24,24,26,26,27,27,28,28,29,29,30,30,37,37,38,38,40,40,41,41],"right_children":[2,4,6,8,10,12,14,16,18,20,22,24,26,-1,28,30,32,-1,34,-1,-1,-1,-1,36,38,-1,40,42,44,46,48,-1,-1,-1,-1,-1,-1,50,52,-1,54,56,-1,-1,-1,-1,-1,-1,-1,-1,-1,-1,-1,-1,-1,-1,-1],"split_conditions":[5E-1,5E-1,5E-1,5E-1,4.35E1,5E-1,2.65E1,5E-1,3.85E1,3.55E1,4.95E1,2.15E1,2.85E1,-3.6975726E-1,4.05E1,3.35E1,4.25E1,-1.8255332E-1,5.15E1,-2.9681543E-1,-7.599965E-2,-5.375519E-1,-2.8157115E-1,2.05E1,5E-1,1.591937E-1,3.35E1,3.75E1,4.65E1,2.45E1,5E-1,-3.6283848E-1,-2.3196287E-1,-5.049677E-1,-1.5550268E-1,-2.3017892E-1,-1.4723751E-1,5.85E1,5E-1,-4.0331793E-1,3.95E1,2.95E1,-2.5060052E-1,1.9109538E-1,-9.542893E-2,-6.4437673E-3,-9.229248E-2,-2.0531695E-1,-3.2432296E-3,1.7335552E-1,-1.278796E-1,7.909305E-2,-1.76874E-1,3.0935539E-2,-1.5132515E-1,1.8508734E-2,-6.268199E-2],"split_indices":[1,15,29,30,0,28,0,27,0,0,0,0,0,0,0,0,0,0,0,0,0,0,0,0,3,0,0,0,0,0,28,0,0,0,0,0,0,0,25,0,0,0,0,0,0,0,0,0,0,0,0,0,0,0,0,0,0],"split_type":[0,0,0,0,0,0,0,0,0,0,0,0,0,0,0,0,0,0,0,0,0,0,0,0,0,0,0,0,0,0,0,0,0,0,0,0,0,0,0,0,0,0,0,0,0,0,0,0,0,0,0,0,0,0,0,0,0],"sum_hessian":[1.2387666E3,3.6897946E2,8.697871E2,3.057771E2,6.320238E1,7.7062415E2,9.916301E1,2.602365E2,4.5540573E1,3.478674E1,2.8415644E1,6.889182E2,8.170592E1,1.3249879E1,8.5913124E1,2.3207866E2,2.815786E1,1.9622784E1,2.591779E1,2.0244968E1,1.454177E1,1.114666E1,1.7268984E1,2.2756058E1,6.661622E2,1.424987E1,6.745605E1,5.5981655E1,2.993147E1,7.826718E1,1.5381148E2,1.7073706E1,1.1084153E1,1.531068E1,1.0607109E1,1.0625863E1,1.2130196E1,2.9705222E2,3.6910995E2,1.4748331E1,5.2707718E1,4.498906E1,1.0992599E1,1.2488502E1,1.744297E1,1.9192123E1,5.9075058E1,1.3706998E2,1.67415E1,2.7139703E2,2.565517E1,3.3558777E2,3.352216E1,1.6545979E1,3.616174E1,1.1749893E1,3.3239166E1],"tree_param":{"num_deleted":"0","num_feature":"31","num_nodes":"57","size_leaf_vector":"0"}},{"base_weights":[-2.9114373E-2,-1.938406E-1,3.803588E-2,-1.7954463E-1,-5.4680747E-1,5.939126E-2,-2.1438701E-1,-4.3925187E-1,-1.6637021E-1,7.089313E-2,-4.956218E-1,-1.912099E-2,-2.5593188E-1,8.705183E-2,-1.7788199E-1,3.1010315E-1,4.9049452E-2,-3.3263928E-1,-5.607543E-2,-1.6332811E-1,-5.507998E-1,4.86319E-1,1.20913744E-1,6.420987E-2,-3.1701142E-1,-4.6356288E-1,-2.5837258E-1,5.336601E-2,-1.8081735E-1,3.7216467E-1,6.8049043E-1,5.833276E-1,-2.177343E-1,8.7591074E-2,-1.450204E-1,1.5604446E-2,-5.469707E-1,-1.5439229E-1,-3.7862426E-1],"categories":[],"categories_nodes":[],"categories_segments":[],"categories_sizes":[],"default_left":[1,1,1,1,0,1,1,0,1,1,0,0,1,0,1,1,1,1,0,1,0,1,1,1,1,0,1,0,0,0,0,0,0,0,0,0,0,0,0],"id":2,"left_children":[1,3,5,7,-1,9,11,-1,13,15,-1,-1,17,-1,19,21,23,25,-1,27,-1,29,31,33,35,-1,37,-1,-1,-1,-1,-1,-1,-1,-1,-1,-1,-1,-1],"loss_changes":[1.341191E1,1.6734953E0,4.657939E0,1.0865526E0,0E0,5.112031E0,5.421486E-1,0E0,9.612055E-1,4.0605707E0,0E0,0E0,8.32536E-1,0E0,1.5947838E0,2.110857E0,3.9935594E0,2.6838303E-1,0E0,1.1472645E0,0E0,4.8628807E-1,5.2501493E0,3.3799038E0,2.1991506E0,0E0,2.8828228E-1,0E0,0E0,0E0,0E0,0E0,0E0,0E0,0E0,0E0,0E0,0E0,0E0],"parents":[2147483647,0,0,1,1,2,2,3,3,5,5,6,6,8,8,9,9,12,12,14,14,15,15,16,16,17,17,19,19,21,21,22,22,23,23,24,24,26,26],"right_children":[2,4,6,8,-1,10,12,-1,14,16,-1,-1,18,-1,20,22,24,26,-1,28,-1,30,32,34,36,-1,38,-1,-1,-1,-1,-1,-1,-1,-1,-1,-1,-1,-1],"split_conditions":[5E-1,6.25E1,5E-1,2.25E1,-3.0074412E-1,5E-1,3.85E1,-2.4158853E-1,2.45E1,5E-1,-2.72592E-1,-1.0516545E-2,5.95E1,4.7878508E-2,5E-1,4.55E1,5E-1,4.65E1,-3.0841488E-2,5E-1,-3.029399E-1,4.05E1,5E-1,5E-1,3.65E1,-2.5495958E-1,5.35E1,2.9351305E-2,-9.9449545E-2,2.0469058E-1,3.7426975E-1,3.208302E-1,-1.19753875E-1,4.8175093E-2,-7.976122E-2,8.582445E-3,-3.008339E-1,-8.491576E-2,-2.0824336E-1],"split_indices":[1,0,5,0,0,17,0,0,0,9,0,0,0,0,6,0,22,0,0,9,0,0,6,28,0,0,0,0,0,0,0,0,0,0,0,0,0,0,0],"split_type":[0,0,0,0,0,0,0,0,0,0,0,0,0,0,0,0,0,0,0,0,0,0,0,0,0,0,0,0,0,0,0,0,0,0,0,0,0,0,0],"sum_hessian":[1.2108292E3,3.5010364E2,8.607255E2,3.3792554E2,1.2178096E1,7.942919E2,6.643365E1,1.475326E1,3.2317227E2,7.790201E2,1.5271835E1,1.1910953E1,5.4522694E1,1.3757197E1,3.0941507E2,6.408032E1,7.1493976E2,3.8920235E1,1.560246E1,2.9917706E2,1.0238013E1,3.2364582E1,3.1715738E1,6.872998E2,2.7639936E1,1.2189566E1,2.6730669E1,2.2189877E1,2.7698718E2,2.221875E1,1.0145832E1,1.310235E1,1.8613388E1,6.1873804E2,6.856178E1,1.1679178E1,1.5960758E1,1.556001E1,1.1170659E1],"tree_param":{"num_deleted":"0","num_feature":"31","num_nodes":"39","size_leaf_vector":"0"}},{"base_weights":[-1.4812123E-2,-2.4555622E-2,6.805911E-1,-3.227756E-2,6.393172E-1,-2.5077453E-2,-5.389405E-1,-1.1119252E-1,9.314101E-3,-9.002317E-2,-3.6480355E-1,-1.1173157E-1,3.2089293E-2,-1.0437964E-1,2.8770137E-1,-6.0871506E-1,-1.3565953E-1,-4.6168506E-2,-7.642369E-1,4.562192E-2,-2.2724484E-1],"categories":[],"categories_nodes":[],"categories_segments":[],"categories_sizes":[],"default_left":[1,1,0,1,0,1,0,1,1,1,1,1,1,0,0,0,0,0,0,0,0],"id":3,"left_children":[1,3,-1,5,-1,7,-1,9,11,13,15,17,19,-1,-1,-1,-1,-1,-1,-1,-1],"loss_changes":[8.110316E0,6.064498E0,0E0,4.241427E0,0E0,3.4100904E0,0E0,1.7312536E0,2.2738135E0,1.6817963E0,1.3139553E0,5.553072E0,2.4454515E0,0E0,0E0,0E0,0E0,0E0,0E0,0E0,0E0],"parents":[2147483647,0,0,1,1,3,3,5,5,7,7,8,8,9,9,10,10,11,11,12,12],"right_children":[2,4,-1,6,-1,8,-1,10,12,14,16,18,20,-1,-1,-1,-1,-1,-1,-1,-1],"split_conditions":[5E-1,5E-1,3.7432513E-1,5E-1,3.516245E-1,5E-1,-2.9641727E-1,5.85E1,2.75E1,5.65E1,6.15E1,5E-1,5E-1,-5.7408802E-2,1.5823576E-1,-3.347933E-1,-7.4612744E-2,-2.539268E-2,-4.2033032E-1,2.5092056E-2,-1.2498467E-1],"split_indices":[18,14,0,23,0,1,0,0,0,0,0,27,26,0,0,0,0,0,0,0,0],"split_type":[0,0,0,0,0,0,0,0,0,0,0,0,0,0,0,0,0,0,0,0,0],"sum_hessian":[1.1935115E3,1.1779713E3,1.5540211E1,1.1653676E3,1.2603775E1,1.1500735E3,1.5294023E1,3.275838E2,8.2248975E2,3.03597E2,2.3986795E1,1.2962935E2,6.9286035E2,2.931776E2,1.0419368E1,1.0816615E1,1.3170181E1,1.1876656E2,1.0862785E1,6.592817E2,3.3578697E1],"tree_param":{"num_deleted":"0","num_feature":"31","num_nodes":"21","size_leaf_vector":"0"}},{"base_weights":[-7.417022E-3,-1.2226701E-2,3.4462935E-1,-1.6119787E-2,3.36298E-1,2.1696852E-3,-1.0357408E-1,-1.9664966E-2,5.6739774E-2,-1.296871E-1,2.8041333E-1,4.190795E-4,-2.0314224E-1,2.705283E-1,-7.3900274E-3,-1.9097137E-1,-1.8138973E-2,7.796271E-3,-3.9827472E-1,-1.6570124E-1,-2.3035142E-1,4.0846848E-1,1.7663768E-1,-3.8657762E-2,3.8922575E-1,1.6330819E-3,-3.0111817E-1,-2.695199E-1,1.6223057E-1],"categories":[],"categories_nodes":[],"categories_segments":[],"categories_sizes":[],"default_left":[1,1,0,1,0,1,1,1,1,1,0,1,1,1,1,1,1,0,0,0,0,0,0,0,0,0,0,0,0],"id":4,"left_children":[1,3,-1,5,-1,7,9,11,13,15,-1,17,19,21,23,25,27,-1,-1,-1,-1,-1,-1,-1,-1,-1,-1,-1,-1],"loss_changes":[2.009718E0,1.5921428E0,0E0,1.8515786E0,0E0,1.1428856E0,2.0439422E0,2.524824E0,3.7599914E0,1.282762E0,0E0,1.8223945E0,3.06983E-2,7.473507E-1,2.6419582E0,2.5744753E0,3.1188245E0,0E0,0E0,0E0,0E0,0E0,0E0,0E0,0E0,0E0,0E0,0E0,0E0],"parents":[2147483647,0,0,1,1,3,3,5,5,6,6,7,7,8,8,9,9,11,11,12,12,13,13,14,14,15,15,16,16],"right_children":[2,4,-1,6,-1,8,10,12,14,16,-1,18,20,22,24,26,28,-1,-1,-1,-1,-1,-1,-1,-1,-1,-1,-1,-1],"split_conditions":[5E-1,5E-1,1.8954614E-1,5.25E1,1.849639E-1,4.15E1,5E-1,3.95E1,4.35E1,6.05E1,1.5422733E-1,5E-1,5E-1,5E-1,5E-1,5E-1,5E-1,4.287949E-3,-2.1905111E-1,-9.113568E-2,-1.2669328E-1,2.2465767E-1,9.715073E-2,-2.126177E-2,2.1407416E-1,8.981951E-4,-1.6561499E-1,-1.4823595E-1,8.922681E-2],"split_indices":[18,14,0,0,0,0,21,0,0,0,0,23,3,3,25,3,3,0,0,0,0,0,0,0,0,0,0,0,0],"split_type":[0,0,0,0,0,0,0,0,0,0,0,0,0,0,0,0,0,0,0,0,0,0,0,0,0,0,0,0,0],"sum_hessian":[1.183425E3,1.1684271E3,1.4997855E1,1.156463E3,1.1964163E1,9.572474E2,1.9921565E2,6.8414575E2,2.731016E2,1.8715076E2,1.2064901E1,6.175449E2,6.6600845E1,6.2275684E1,2.1082591E2,1.2032983E2,6.682093E1,6.0728845E2,1.0256456E1,3.1014055E1,3.558679E1,2.3864489E1,3.8411194E1,1.9625632E2,1.4569598E1,4.4136757E1,7.619307E1,2.7708853E1,3.9112076E1],"tree_param":{"num_deleted":"0","num_feature":"31","num_nodes":"29","size_leaf_vector":"0"}},{"base_weights":[-3.1514196E-3,4.4483948E-3,-1.4393796E-1,1.4897353E-2,-9.452365E-2,-3.3013475E-1,-9.280928E-2,5.889191E-2,-1.8919747E-2,-4.0907523E-1,-3.8862016E-2,-1.512744E-1,2.566265E-2,-2.2959745E-1,7.993481E-2,1.7473918E-1,-4.3228533E-2,-2.9185917E-3,-2.4638619E-1,3.068129E-3,-3.145782E-1,-2.8661224E-1,-1.6641141E-1,6.0483858E-2,2.7260077E-1,8.5538544E-2,2.0910096E-1,-3.269125E-2,-5.0508827E-1,-5.3809695E-2,3.0773792E-1,5.0543502E-2,2.5412947E-1,1.0968444E-1,5.005566E-1,2.7125636E-1,9.982853E-2,-1.2726359E-2,-2.4175143E-1,1.1801607E-1,-9.5293604E-2],"categories":[],"categories_nodes":[],"categories_segments":[],"categories_sizes":[],"default_left":[1,1,1,1,1,0,1,1,1,0,1,1,0,1,1,1,1,1,0,0,0,0,0,1,1,0,1,1,0,1,0,0,0,0,0,0,0,0,0,0,0],"id":5,"left_children":[1,3,5,7,9,-1,11,13,15,-1,17,19,-1,21,23,25,27,29,-1,-1,-1,-1,-1,31,33,-1,35,37,-1,39,-1,-1,-1,-1,-1,-1,-1,-1,-1,-1,-1],"loss_changes":[1.262251E0,1.1593596E0,5.445652E-1,1.5091867E0,1.8585685E0,0E0,3.4185886E-1,2.6941528E0,2.709117E0,0E0,6.860354E-1,8.2810086E-1,0E0,6.1185718E-2,1.5258212E0,1.7888987E-1,2.468799E0,1.2732483E0,0E0,0E0,0E0,0E0,0E0,7.091855E-1,1.33605E0,0E0,2.8299403E-1,2.0853164E0,0E0,5.0415576E-1,0E0,0E0,0E0,0E0,0E0,0E0,0E0,0E0,0E0,0E0,0E0],"parents":[2147483647,0,0,1,1,2,2,3,3,4,4,6,6,7,7,8,8,10,10,11,11,13,13,14,14,15,15,16,16,17,17,23,23,24,24,26,26,27,27,29,29],"right_children":[2,4,6,8,10,-1,12,14,16,-1,18,20,-1,22,24,26,28,30,-1,-1,-1,-1,-1,32,34,-1,36,38,-1,40,-1,-1,-1,-1,-1,-1,-1,-1,-1,-1,-1],"split_conditions":[5E-1,5E-1,5E-1,5E-1,2.65E1,-1.8157412E-1,4.55E1,2.35E1,2.55E1,-2.2499138E-1,5.25E1,3.35E1,1.4114457E-2,2.15E1,5E-1,5E-1,5E-1,4.45E1,-1.3551241E-1,1.687471E-3,-1.7301802E-1,-1.5763673E-1,-9.152628E-2,5E-1,4.05E1,4.70462E-2,2.35E1,5E-1,-2.7779856E-1,2.95E1,1.6925585E-1,2.7798926E-2,1.3977121E-1,6.0326442E-2,2.7530614E-1,1.49191E-1,5.490569E-2,-6.999498E-3,-1.3296328E-1,6.490884E-2,-5.241148E-2],"split_indices":[22,29,3,3,0,0,0,0,0,0,0,0,0,0,25,1,12,0,0,0,0,0,0,21,0,0,0,28,0,0,0,0,0,0,0,0,0,0,0,0,0],"split_type":[0,0,0,0,0,0,0,0,0,0,0,0,0,0,0,0,0,0,0,0,0,0,0,0,0,0,0,0,0,0,0,0,0,0,0,0,0,0,0,0,0],"sum_hessian":[1.1781287E3,1.118708E3,5.9420696E1,1.0126474E3,1.06060616E2,1.1625788E1,4.779491E1,4.397763E2,5.728711E2,1.4991615E1,9.1069E1,3.18167E1,1.5978211E1,2.9223495E1,4.1055283E2,6.319913E1,5.0967194E2,7.848872E1,1.2580274E1,1.6861593E1,1.4955106E1,1.3503158E1,1.5720338E1,3.740989E2,3.6453922E1,1.854557E1,4.465356E1,4.993501E2,1.032184E1,6.815114E1,1.033759E1,3.5703247E2,1.7066435E1,2.2123663E1,1.4330261E1,2.75184E1,1.7135159E1,4.5678845E2,4.2561646E1,1.2895071E1,5.5256065E1],"tree_param":{"num_deleted":"0","num_feature":"31","num_nodes":"41","size_leaf_vector":"0"}},{"base_weights":[-1.9533143E-3,3.1346332E-3,-1.3586544E-1,-3.2899873E-3,2.208358E-1,-4.5455667E-1,1.6872603E-2,5.2634487E-3,-3.5652274E-1,3.3090967E-1,1.4614618E-1,-1.7180958E-1,1.393743E-1,-3.0906005E-3,5.9092337E-1,1.7141057E-3,-2.8357226E-1,9.658625E-3,-1.0165562E-1],"categories":[],"categories_nodes":[],"categories_segments":[],"categories_sizes":[],"default_left":[1,1,1,1,1,0,1,1,0,0,0,0,0,1,0,1,0,0,0],"id":6,"left_children":[1,3,5,7,9,-1,11,13,-1,-1,-1,-1,-1,15,-1,17,-1,-1,-1],"loss_changes":[8.0050653E-1,1.5843773E0,2.1010299E0,3.3277874E0,2.185998E-1,0E0,7.182078E-1,5.2651315E0,0E0,0E0,0E0,0E0,0E0,1.4311688E0,0E0,8.589474E-1,0E0,0E0,0E0],"parents":[2147483647,0,0,1,1,2,2,3,3,4,4,6,6,7,7,13,13,15,15],"right_children":[2,4,6,8,10,-1,12,14,-1,-1,-1,-1,-1,16,-1,18,-1,-1,-1],"split_conditions":[6.35E1,6.05E1,6.55E1,5.85E1,6.15E1,-2.5000617E-1,5E-1,5.75E1,-1.9608751E-1,1.8200032E-1,8.03804E-2,-9.4495274E-2,7.6655865E-2,5.65E1,3.2500786E-1,5E-1,-1.5596475E-1,5.312244E-3,-5.591059E-2],"split_indices":[0,0,0,0,0,0,3,0,0,0,0,0,0,0,0,16,0,0,0],"split_type":[0,0,0,0,0,0,0,0,0,0,0,0,0,0,0,0,0,0,0],"sum_hessian":[1.1732788E3,1.1312731E3,4.2005764E1,1.0998015E3,3.1471563E1,1.2969197E1,2.9036568E1,1.0747616E3,2.5039963E1,1.1335461E1,2.0136103E1,1.1272181E1,1.7764387E1,1.0606272E3,1.4134418E1,1.0437416E3,1.6885609E1,9.700914E2,7.365018E1],"tree_param":{"num_deleted":"0","num_feature":"31","num_nodes":"19","size_leaf_vector":"0"}},{"base_weights":[-1.1950985E-3,5.2011623E-3,-8.615163E-2,-2.8795933E-2,1.8967716E-2,9.104306E-2,-2.515652E-1,-6.5202457E-3,-1.341205E-1,3.60336E-2,-9.9526666E-2,4.8285844E-3,2.4021731E-1,-5.1747495E-1,-1.3260607E-1,1.1974672E-2,-1.7997143E-1,-4.222738E-1,-3.8581133E-2,1.7323628E-2,1.2521012E-1,-1.3635543E-1,1.0538159E-1,2.0447882E-1,-2.4652596E-1,6.857871E-2,-3.1045258E-1,4.052908E-2,-1.2997918E-1,-2.3068878E-1,-1.2439543E-1,7.0556454E-2,-1.8671744E-1,4.7265615E-2,-4.9064793E-2,1.560671E-1,-1.5217732E-1,-2.0347777E-1,-5.750596E-2,6.6369504E-2,-1.2098485E-1,-2.9454786E-1,-5.3129386E-2,-7.616665E-2,2.3967454E-1,2.582878E-2,4.3924204E-1,-9.1094494E-2,2.2185537E-1,1.861758E-1,-7.697748E-2,-3.6758092E-1,-1.09685615E-1,5.0496932E-2,-2.839E-1],"categories":[],"categories_nodes":[],"categories_segments":[],"categories_sizes":[],"default_left":[1,1,1,1,1,1,1,1,1,1,1,1,0,0,1,1,1,0,1,1,1,1,0,0,0,0,0,1,1,0,0,1,0,1,1,1,0,1,1,0,0,0,0,0,0,0,0,0,0,0,0,0,0,0,0],"id":7,"left_children":[1,3,5,7,9,11,13,15,17,19,21,23,-1,-1,25,27,29,-1,31,33,35,37,-1,-1,-1,-1,-1,39,41,-1,-1,43,-1,45,47,49,-1,51,53,-1,-1,-1,-1,-1,-1,-1,-1,-1,-1,-1,-1,-1,-1,-1,-1],"loss_changes":[6.3762045E-1,5.113469E-1,2.4309294E0,7.3808527E-1,1.5757298E0,5.1842046E-1,1.2838633E0,8.3953035E-1,1.4960216E0,1.1329035E0,7.5497437E-1,1.386445E0,0E0,0E0,1.1263666E0,9.651804E-1,4.2372942E-2,0E0,6.979455E-1,1.122406E0,1.0322008E0,4.3087888E-1,0E0,0E0,0E0,0E0,0E0,8.340652E-1,4.8892415E-1,0E0,0E0,6.414152E-1,0E0,3.2560194E0,2.0201108E0,7.617338E-1,0E0,6.488658E-1,9.8862934E-1,0E0,0E0,0E0,0E0,0E0,0E0,0E0,0E0,0E0,0E0,0E0,0E0,0E0,0E0,0E0,0E0],"parents":[2147483647,0,0,1,1,2,2,3,3,4,4,5,5,6,6,7,7,8,8,9,9,10,10,11,11,14,14,15,15,16,16,18,18,19,19,20,20,21,21,27,27,28,28,31,31,33,33,34,34,35,35,37,37,38,38],"right_children":[2,4,6,8,10,12,14,16,18,20,22,24,-1,-1,26,28,30,-1,32,34,36,38,-1,-1,-1,-1,-1,40,42,-1,-1,44,-1,46,48,50,-1,52,54,-1,-1,-1,-1,-1,-1,-1,-1,-1,-1,-1,-1,-1,-1,-1,-1],"split_conditions":[5E-1,5E-1,5E-1,5E-1,5E-1,4.05E1,2.95E1,5E-1,5E-1,5E-1,4.85E1,3.15E1,1.3211952E-1,-2.8461123E-1,4.25E1,5E-1,3.75E1,-2.322506E-1,4.35E1,4.55E1,5E-1,5E-1,5.7959877E-2,1.1246335E-1,-1.3558929E-1,3.7718292E-2,-1.7074892E-1,5E-1,3.15E1,-1.2687883E-1,-6.841749E-2,3.45E1,-1.0269459E-1,5E-1,5E-1,5.65E1,-8.369753E-2,3.15E1,3.65E1,3.650323E-2,-6.654167E-2,-1.6200133E-1,-2.9221162E-2,-4.189166E-2,1.3182099E-1,1.4205829E-2,2.4158312E-1,-5.0101973E-2,1.2202046E-1,1.0239669E-1,-4.233761E-2,-2.0216951E-1,-6.032709E-2,2.7773313E-2,-1.56145E-1],"split_indices":[25,1,3,15,29,0,0,27,3,15,0,0,0,0,0,30,0,0,0,0,5,3,0,0,0,0,0,22,0,0,0,0,0,6,27,0,0,0,0,0,0,0,0,0,0,0,0,0,0,0,0,0,0,0,0],"split_type":[0,0,0,0,0,0,0,0,0,0,0,0,0,0,0,0,0,0,0,0,0,0,0,0,0,0,0,0,0,0,0,0,0,0,0,0,0,0,0,0,0,0,0,0,0,0,0,0,0,0,0,0,0,0,0],"sum_hessian":[1.1715571E3,1.0904011E3,8.115603E1,3.1396335E2,7.7643774E2,3.9399746E1,4.1756283E1,2.6003003E2,5.3933323E1,6.7929913E2,9.713862E1,2.5623276E1,1.3776469E1,1.1870988E1,2.9885294E1,2.3581616E2,2.421387E1,1.2577828E1,4.1355495E1,5.6248035E2,1.1681878E2,8.262308E1,1.4515538E1,1.4384332E1,1.1238944E1,1.4310857E1,1.5574436E1,1.9691971E2,3.8896454E1,1.1012891E1,1.3200978E1,2.4113718E1,1.7241777E1,3.878454E2,1.7463495E2,1.0551815E2,1.1300626E1,4.3776657E1,3.8846424E1,1.7026784E2,2.6651875E1,1.1480007E1,2.7416445E1,1.32060585E1,1.090766E1,3.6874496E2,1.9100433E1,1.517558E2,2.2879156E1,9.362339E1,1.1894762E1,1.4859201E1,2.8917454E1,2.6825891E1,1.2020533E1],"tree_param":{"num_deleted":"0","num_feature":"31","num_nodes":"55","size_leaf_vector":"0"}},{"base_weights":[-1.5080092E-3,-1.0061347E-1,3.1846217E-3,-1.474386E-1,-6.1810862E-2,1.4579286E-1,-3.0645016E-3,-2.1720171E-1,2.5158344E-2,3.234983E-2,2.3279494E-1,-1.1165897E-1,6.3557504E-3,2.780245E-1,1.679587E-1,-8.542829E-2,-2.3456018E-1,2.3838651E-1,-1.8725512E-3,3.82206E-2,-1.4354028E-1,1.5794036E-1,3.1151697E-1,2.9514148E-3,-3.4396356E-1,-4.875545E-3,-2.4233736E-1,-5.0738435E-3,9.358274E-2],"categories":[],"categories_nodes":[],"categories_segments":[],"categories_sizes":[],"default_left":[1,1,1,0,1,1,1,0,0,0,1,1,1,0,0,1,0,1,1,0,1,0,0,1,0,0,0,0,0],"id":8,"left_children":[1,3,5,-1,7,9,11,-1,-1,-1,13,15,17,-1,-1,19,-1,21,23,-1,25,-1,-1,27,-1,-1,-1,-1,-1],"loss_changes":[5.418752E-1,8.659476E-2,9.921433E-1,0E0,4.1801566E-1,4.5374703E-1,1.0922967E0,0E0,0E0,0E0,3.0397177E-2,2.547227E-1,1.8768826E0,0E0,0E0,5.2148485E-1,0E0,1.4886618E-1,1.5690056E0,0E0,6.7095554E-1,0E0,0E0,6.8267655E-1,0E0,0E0,0E0,0E0,0E0],"parents":[2147483647,0,0,1,1,2,2,4,4,5,5,6,6,10,10,11,11,12,12,15,15,17,17,18,18,20,20,23,23],"right_children":[2,4,6,-1,8,10,12,-1,-1,-1,14,16,18,-1,-1,20,-1,22,24,-1,26,-1,-1,28,-1,-1,-1,-1,-1],"split_conditions":[2.25E1,5E-1,2.45E1,-8.109123E-2,2.05E1,5E-1,2.75E1,-1.1946094E-1,1.383709E-2,1.7792406E-2,2.35E1,5E-1,2.85E1,1.5291348E-1,9.237729E-2,2.55E1,-1.290081E-1,5E-1,5E-1,2.102133E-2,5E-1,8.68672E-2,1.7133434E-1,5E-1,-1.8917996E-1,-2.6815499E-3,-1.3328555E-1,-2.790614E-3,5.147051E-2],"split_indices":[0,3,0,0,0,3,0,0,0,0,0,29,0,0,0,0,0,3,23,0,3,0,0,27,0,0,0,0,0],"split_type":[0,0,0,0,0,0,0,0,0,0,0,0,0,0,0,0,0,0,0,0,0,0,0,0,0,0,0,0,0],"sum_hessian":[1.1634703E3,5.1675476E1,1.1117948E3,2.2148281E1,2.9527195E1,4.5736397E1,1.0660585E3,1.0058275E1,1.946892E1,2.0447063E1,2.5289333E1,8.4229324E1,9.818291E2,1.2960217E1,1.2329116E1,7.081125E1,1.3418074E1,3.266735E1,9.4916174E2,2.2748978E1,4.806227E1,1.706021E1,1.5607142E1,9.369409E2,1.2220818E1,2.0433115E1,2.7629156E1,8.6159235E2,7.53486E1],"tree_param":{"num_deleted":"0","num_feature":"31","num_nodes":"29","size_leaf_vector":"0"}}]},"name":"gbtree"},"learner_model_param":{"base_score":"5E-1","boost_from_average":"1","num_class":"0","num_feature":"31","num_target":"1"},"objective":{"name":"binary:logistic","reg_loss_param":{"scale_pos_weight":"1"}}},"version":[1,7,6]}